[-0.029253858553031458, 0.24674614144696783, 0.15277190449930006, 0.8637461414469683, 0.7836862316955988, 0.4047461414469679, 0.775025763052332, 0.623, 0.7470257630523319, 0.3160599097513673, 0.7617719044993002, 0.195, 0.631, 0.618, 0.7810856728037013, -0.009228095500700284, 0.8695262180459459, 0.6835262180459459, 0.3395262180459435, 0.7965852178100873, 0.6137719044993002, 0.902, 0.25, 0.047, 0.7780856728037013, 0.015771904499299626, 0.022, 0.283, 0.238, 0.7220856728037013, 0.453771904499298, 0.4897461414469694, 0.5687461414469682, 0.5217461414469682, 0.46771199474793074, 0.7739787170373937, 0.24897871703738556, 0.9159429380165607, 0.6559787170373937, 0.4174185033671415, 0.9249787170373938, 0.771964220979167, 0.209, 0.16596422097916638, 0.7565602136702501, 0.19294293801655196, 0.408, 0.682, 0.772, 0.993524434649417, 0.9289429380165607, 0.3032249856639771, 0.18522498566397538, 0.10922498566397724, 0.2892636699646043, 0.7409429380165607, 0.646, 0.773, 0.088, 0.21052443464940984, 0.6249429380165608, 0.596, 0.891, 0.133, 0.665524434649417, 0.10894293801655361, 0.0669787170373864, 0.2239787170373856, 0.9319787170373938, 0.2543827243463083, 0.423815334872866, 0.849815334872863, 0.6868077717883763, 0.024815334872865, 0.6548407932926608, 0.407815334872866, 0.17599243691551042, 0.171, 0.8539924369155132, 0.3569745415802007, 0.4338077717883762, 0.553, 0.429, 0.426, 0.013966978495711081, 0.7948077717883762, 0.13367845936314915, 0.2716784593631493, 0.9106784593631522, 0.131280956048073, 0.9418077717883763, 0.339, 0.807, 0.237, 0.7549669784957155, 0.8018077717883763, 0.29, 0.302, 0.423, 0.11696697849571122, 0.9688077717883762, 0.3388153348728659, 0.626815334872863, 0.05481533487286421, 0.640833230208174, 0.7026367205019816, -0.03636327949802315, 0.03516742794295678, 0.32663672050197723, 1.1884813729974861, -0.1343632794980231, -0.15946929255902398, 0.109, 0.09553070744097654, -0.2658446524955106, -0.4218325720570476, 0.398, 0.003, 0.044, -1.1213139450545355, -0.20883257205704908, 1.2156551136850815, 1.7856551136850873, 1.0246551136850826, -2.35143835129864, 0.23116742794295714, 0.422, 0.72, 0.632, -0.6563139450545314, -0.10783257205704562, 0.917, 0.117, 0.862, -1.1153139450545348, 0.02016742794295677, 0.12663672050197375, 0.47063672050198063, 0.7026367205019816, 1.1670120804384663, 0.9060721278173697, 0.44507212781737093, 0.9805975919582571, 0.9590721278173696, 0.7359819915746199, 0.9340721278173697, 0.5195254641408875, 0.8, 0.6195254641408875, 0.1150901362427501, 0.9925975919582571, 0.024, 0.742, 0.595, 0.6126156003836373, 0.5995975919582571, 0.3175297375872917, 0.17852973758729107, 0.6725297375872938, 0.532611326937231, 0.7255975919582571, 0.905, 0.228, 0.697, 0.9496156003836372, 0.8595975919582571, 0.642, 0.928, 0.988, 0.4336156003836331, 0.8675975919582571, 0.46207212781737095, 0.47607212781737096, 0.3000721278173709, 0.017507455715508505, 1.317495031551817, 1.4574950315518167, -0.3174967288750401, 1.5964950315518183, -1.5293237829973636, 1.09149503155181, -1.0969917604268622, 0.415, -1.0489917604268588, 2.6888188145491774, -0.8054967288750412, 0.526, 0.001, 0.042, 0.9428270541223189, -0.6004967288750414, -1.3348667397181972, -1.182866739718198, -0.5138667397181909, 0.9997020334136542, -0.8824967288750403, 0.217, 0.377, 0.438, 1.1998270541223164, -0.585496728875041, 0.41, 0.801, 0.518, 1.3268270541223166, -0.057496728875039566, 1.3084950315518167, 0.7614950315518189, 0.9604950315518167, -3.0563155434242253]
[1.0369864156118844, 0.6979014703368326, 0.8750904496597497, 1.3394184653107855, 1.5191538642090572, 0.7448957170986112, -0.9098558079548266, -1.3464761459349255, -1.3091132659271836, -0.9018253431752185, -0.7213049616827761, -1.4292615811819696, -0.667583057375916, -1.5582106827552593, -0.6588357655244131, -1.2863360177792642, -1.2470334625800048, -0.8375864280576574, -1.2522847140262658, -1.2189718594618097, -1.160492107027239, -0.4969215248713938, -1.194642647787841, -1.012163391772228, -1.8871989989945928, -2.2316424171875875, -1.589372333909927, -4.4024520882325096, -1.9260761275808798, 9.725899972220498, -1.4597535867791047, -0.9439061578453999, -1.162276747323673, 4.3107747623825965, -0.7464759742932459, 2.5903162314768013, 2.0743062666593537, 2.051858170385421, 2.3672251073495407, 3.0234713636224675, 2.804774264984672, -14.516742923066106]